19 150 70
봉지 1.0554038286209106 0.3960682451725006 0.027292268350720406 0.2576281726360321 -0.05160008743405342 0.017823973670601845 0.3222084939479828 -0.17829537391662598 -0.0748170018196106 1.0317600965499878 -0.13806188106536865 -0.04574614763259888 0.4559895694255829 0.12134452164173126 0.3434378206729889 -0.2874608337879181 0.23334261775016785 -0.41424939036369324 -0.19254714250564575 -0.1225356012582779 -0.06533828377723694 -0.026718003675341606 0.16764873266220093 0.14858601987361908 0.40085896849632263 0.24980713427066803 0.410707026720047 0.2486613392829895 -0.1955765038728714 0.10220740735530853 -0.3629217743873596 0.3416734039783478 -0.1781916320323944 -0.25013789534568787 0.19384032487869263 0.1884196549654007 -0.09957315772771835 -0.16658267378807068 -0.2544052302837372 0.32090121507644653 -0.0932082086801529 0.2841428518295288 -0.023104310035705566 0.27566027641296387 0.04620366916060448 0.12740780413150787 -0.12828589975833893 -0.07680001854896545 -0.21918202936649323 0.04577689617872238 0.03449461981654167 -0.10416828095912933 0.05306856706738472 0.20025549829006195 0.18416601419448853 -0.5490893721580505 0.35896816849708557 0.1868371069431305 -0.26924893260002136 -0.19563806056976318 -0.09321529418230057 0.009508146904408932 -0.09967487305402756 0.10430900752544403 -0.0972643718123436 0.2512586712837219 0.32981961965560913 -0.589647114276886 -0.14551077783107758 0.07079470902681351 -0.4664916694164276 -0.08368173986673355 0.0139541607350111 -0.3931373953819275 0.26815876364707947 -0.20439209043979645 0.12004702538251877 -0.2525345981121063 0.33426547050476074 0.06460173428058624 -0.21994037926197052 -0.6170003414154053 0.240836039185524 0.16099482774734497 0.18309634923934937 -0.01956557296216488 -0.19536899030208588 0.14071142673492432 0.10668478906154633 0.19169850647449493 0.042031027376651764 0.01629106141626835 -0.1686149686574936 -0.014416757971048355 0.5043417811393738 -0.010190028697252274 -0.29440563917160034 0.24737417697906494 0.49967116117477417 -0.008101842366158962 -0.06228103116154671 0.3784618675708771 0.2105051726102829 0.21738426387310028 -0.3692309260368347 -0.2786934971809387 -0.01721961423754692 -0.06413871049880981 -0.2390148937702179 -0.09873548895120621 0.10588641464710236 0.07203087955713272 0.13630209863185883 -0.2527256906032562 0.33161768317222595 0.0029842688236385584 0.006516708061099052 -0.2526928782463074 -0.23785293102264404 0.33013489842414856 -0.4866328239440918 -0.128665953874588 0.11990460008382797 -0.3083042502403259 -0.18122708797454834 0.21601828932762146 -0.126566082239151 -0.18729077279567719 0.09503684937953949 -0.08118115365505219 0.010573837906122208 -0.3429115414619446 -0.14955952763557434 -0.6406051516532898 -0.07599277794361115 -0.047542501240968704 -0.3310846984386444 0.2985696494579315 -0.00533631956204772 0.2920991778373718 -0.37624070048332214 0.12563641369342804 -0.15378321707248688 -0.10488645732402802 0.113335020840168 -0.14739395678043365 -0.08898680657148361 0.23814551532268524 0.1895979344844818 0.12209989130496979
쓰레기 0.10157652199268341 0.18931500613689423 -0.22272086143493652 0.10153776407241821 -0.4314829707145691 0.05039958655834198 -0.19818483293056488 0.09042371064424515 0.0874737873673439 -0.16392455995082855 -0.1494113653898239 -0.5127319097518921 0.06945056468248367 0.07407238334417343 -0.08666623383760452 6.61860394757241E-4 0.10710799694061279 -0.05859862640500069 -0.10248228907585144 -0.22104869782924652 0.28625187277793884 -0.02755872532725334 0.40635573863983154 -0.09884750843048096 -0.221162810921669 0.24860140681266785 0.10101855546236038 0.18895122408866882 -0.09717877954244614 0.17520329356193542 0.020762117579579353 0.1870068609714508 0.27039918303489685 0.10516146570444107 -0.0808342769742012 -0.036187879741191864 -0.18220077455043793 0.2842446565628052 0.1492900401353836 -0.23816891014575958 -0.2014126032590866 -0.24081382155418396 -0.12125121057033539 0.2719605267047882 -0.11424464732408524 0.2253841608762741 0.4798400104045868 -0.22740067541599274 -0.13872690498828888 0.34469446539878845 -0.18831229209899902 0.0806184783577919 -0.06804785877466202 3.1515152659267187E-4 -0.03863143175840378 -0.13723605871200562 -0.2503882944583893 -0.05459354445338249 0.2000068873167038 -0.23749011754989624 0.11828839778900146 0.061000846326351166 0.07108622789382935 -0.022960076108574867 -0.20639534294605255 0.24180428683757782 0.0050138141959905624 0.08717112988233566 0.29086217284202576 0.08465608954429626 0.2685839831829071 -0.41286715865135193 0.25349506735801697 0.15478701889514923 0.16098055243492126 -0.39014679193496704 0.3042718172073364 -0.05163989216089249 0.03131211921572685 -0.0714428573846817 0.10027877241373062 0.013354789465665817 0.29325953125953674 0.037057213485240936 0.13757464289665222 -0.10558367520570755 0.1850375384092331 -0.10078788548707962 0.18630093336105347 -0.040076617151498795 0.002691668225452304 0.3071323335170746 -0.21779893338680267 0.12380823493003845 0.14944273233413696 0.4168908894062042 -0.13004226982593536 0.02219238691031933 -0.1757747083902359 0.07588976621627808 -0.23902861773967743 0.09706294536590576 0.013919215649366379 -0.11422571539878845 -0.3396053910255432 0.10496528446674347 0.1863485425710678 -0.1418832689523697 0.15071116387844086 0.3741035461425781 0.20624127984046936 0.45619314908981323 -0.21006560325622559 -0.3750133514404297 -0.09963447600603104 0.15524369478225708 -0.059617962688207626 0.3026367723941803 -0.13517145812511444 0.2113151252269745 0.23861847817897797 -0.15541139245033264 -0.11494050920009613 0.4157606065273285 -0.3135925233364105 -0.07584237307310104 0.32396775484085083 0.0067914617247879505 -0.10644170641899109 0.258368581533432 -0.05194709822535515 0.11523155122995377 0.14291226863861084 0.30334892868995667 -0.24953138828277588 0.07418502122163773 -0.0689045712351799 0.11196291446685791 -0.21104645729064941 -0.27799883484840393 0.11323421448469162 -0.38571691513061523 0.09215249866247177 -0.41212812066078186 0.058688074350357056 0.02505873143672943 0.2780577540397644 -0.1028963103890419 -0.2853657901287079 0.15393616259098053
본투 -0.77878737449646 0.013904189690947533 0.06060127168893814 0.23439903557300568 0.14318636059761047 -0.05479215830564499 -0.043028999119997025 -0.18682405352592468 -0.434632807970047 0.12384883314371109 0.09741958975791931 -0.15335069596767426 -0.5140385627746582 0.09102535992860794 0.16669240593910217 0.3887127935886383 0.8547341823577881 -0.27518320083618164 0.37232276797294617 0.3507659435272217 -0.7371420860290527 0.07805845141410828 -0.13410049676895142 -0.054140593856573105 0.5579941868782043 4.064261447638273E-4 -0.06937765330076218 0.09929345548152924 -0.2858487665653229 -0.6145058870315552 0.32960954308509827 -0.20894528925418854 -0.38045990467071533 -0.052434857934713364 0.24879883229732513 -0.31746602058410645 0.019126851111650467 0.005748942028731108 -0.5061559677124023 0.5878840684890747 0.17157478630542755 0.3425983488559723 0.5944200754165649 0.0019563522655516863 0.3669043183326721 0.18689286708831787 -0.2008005827665329 0.42841652035713196 0.011088932864367962 -0.6043649315834045 0.21538236737251282 -0.28213998675346375 -0.1591646671295166 0.1689920425415039 -0.10974706709384918 -0.024948878213763237 0.7196154594421387 0.2394416630268097 -0.41085803508758545 0.07835878431797028 0.11030534654855728 -0.11393965035676956 -0.05800613388419151 0.6161969900131226 -0.48678672313690186 0.06047690287232399 0.26913949847221375 -0.34936878085136414 0.10505778342485428 -0.24698390066623688 -0.29528746008872986 -0.3640216588973999 -0.3684297800064087 0.012390684336423874 0.11064570397138596 0.41365116834640503 0.1939770132303238 0.24042324721813202 0.24585461616516113 -0.0379796177148819 0.22059036791324615 0.7518082857131958 0.03814493119716644 0.10430121421813965 -0.26557135581970215 -0.07222302258014679 0.09733624011278152 0.3275027871131897 0.46889376640319824 0.49536803364753723 -0.38038817048072815 -0.30156591534614563 0.14251825213432312 0.30674538016319275 -0.08901766687631607 0.040751729160547256 -0.257646769285202 0.23421643674373627 0.9066392183303833 -0.22463533282279968 0.5744488835334778 0.5611400008201599 0.6787832975387573 -0.6018456220626831 -0.5347757935523987 -0.055667050182819366 -0.42067429423332214 -0.21388539671897888 -0.48527780175209045 -0.029169484972953796 -0.07463449984788895 0.16625350713729858 0.31599798798561096 -0.09315823763608932 0.07061804085969925 -0.010851123370230198 -0.10611151903867722 -0.06858070194721222 -0.29366981983184814 -0.06625915318727493 0.08711351454257965 0.20896770060062408 0.08961789309978485 0.1641698032617569 -0.12971705198287964 -0.0038744641933590174 0.3269333839416504 -0.286150187253952 0.036971330642700195 -0.13539111614227295 0.11846394836902618 -0.2967868447303772 0.47517669200897217 0.04411472752690315 0.0067764525301754475 -0.2857924699783325 -0.1358545869588852 -0.6692898869514465 -0.04323737323284149 0.27375903725624084 0.3380679190158844 0.021079620346426964 0.0937514454126358 -0.1761317402124405 -0.49330586194992065 0.028306666761636734 0.14334028959274292 0.23814034461975098 0.14839327335357666 -0.33536699414253235
뭐에요 -0.13555608689785004 0.40227755904197693 0.20664942264556885 0.03490482643246651 -0.3113362491130829 0.0956936851143837 0.5172123312950134 -0.5087723135948181 -0.3561549186706543 0.022112885490059853 0.4686051309108734 0.1853824108839035 -0.4909169375896454 0.6846368312835693 0.3455582857131958 0.26289045810699463 1.0270944833755493 -0.3959456980228424 0.6048407554626465 0.13535113632678986 -0.8264045715332031 -0.03308534994721413 0.2296641319990158 0.3761010468006134 0.005824759136885405 0.03360869362950325 0.014135317876935005 -0.050006620585918427 0.42802807688713074 -0.8834351897239685 0.5612474083900452 0.4369004964828491 -0.14952479302883148 -0.23729799687862396 0.4870036542415619 -0.8727736473083496 0.1563308984041214 0.19420437514781952 -0.2728560268878937 0.1188223734498024 0.34706711769104004 0.7105305194854736 0.3131444752216339 0.17699174582958221 -0.18760302662849426 -0.2074623554944992 0.15796668827533722 0.028330525383353233 0.14494264125823975 -0.12871184945106506 -0.015179659239947796 -0.26134905219078064 -0.3896404206752777 -0.20110397040843964 0.12693728506565094 0.16629111766815186 0.40336379408836365 0.33723968267440796 -0.3125404119491577 0.6968801021575928 0.1183755174279213 -0.20827838778495789 0.7385294437408447 0.24975278973579407 -0.48775097727775574 0.034289758652448654 -0.2853826880455017 0.19801399111747742 0.08921587467193604 -0.3364301919937134 -0.3374979496002197 0.2201559841632843 -0.16708210110664368 0.012644220143556595 0.34534701704978943 0.8694713711738586 0.092107392847538 -0.13501201570034027 -0.3048628270626068 0.17855070531368256 -0.5295912623405457 0.9379897713661194 0.24671316146850586 -0.020655618980526924 -0.09396597743034363 0.1009003296494484 0.0024316958151757717 0.14184054732322693 -0.14118093252182007 0.02794930897653103 -0.41402536630630493 -0.46299195289611816 -0.19274888932704926 0.09434304386377335 -0.09151680022478104 0.1466101109981537 0.02737889252603054 0.060269419103860855 0.24097536504268646 -0.08810432255268097 0.3076411783695221 0.18334132432937622 0.5485650300979614 -0.4188039004802704 -0.8185514807701111 -0.30367833375930786 0.019001169130206108 -0.7169891595840454 -0.3810099959373474 -0.28026410937309265 0.02040022239089012 -0.37501853704452515 0.13818469643592834 -0.1260891705751419 0.5606428384780884 0.33240997791290283 -0.9015961289405823 -0.15793493390083313 -0.030376078560948372 -0.04798569530248642 -0.11550161242485046 0.02686060220003128 -0.6606796979904175 0.6910678744316101 -0.13933561742305756 -0.39844074845314026 0.06847687065601349 -0.3569142520427704 0.07313105463981628 -0.20454640686511993 -0.32099518179893494 0.1400001347064972 0.5097965002059937 0.8697527050971985 -0.6756455898284912 0.3142598867416382 0.1650087535381317 -0.5736815929412842 -0.542302668094635 -0.15986217558383942 0.5231960415840149 0.5270135402679443 -0.006346262060105801 -0.2207653671503067 -0.6365386247634888 -0.005240750964730978 0.5434470176696777 -0.4816994071006775 -0.1860954463481903 -0.4975218176841736
woman -0.10755161195993423 -0.23825287818908691 -0.04065582901239395 1.0409531593322754 -0.20237047970294952 0.3314262628555298 -0.005406245589256287 0.1598748117685318 0.34257185459136963 0.23946821689605713 -0.4139830768108368 0.23301687836647034 -0.21729211509227753 0.634518563747406 0.3937026262283325 0.379463255405426 -0.19047006964683533 -0.1439167559146881 -0.1094643622636795 0.11677971482276917 -0.23265473544597626 0.32732969522476196 -0.23762550950050354 -0.6939101219177246 -0.09614858776330948 0.227901428937912 -0.13929185271263123 -0.5083367228507996 -0.2875799536705017 0.20808938145637512 -0.24394653737545013 -0.047488681972026825 0.23746871948242188 -0.5207945108413696 0.3876647353172302 -0.40761759877204895 0.6553820967674255 0.9281529784202576 -0.38827624917030334 0.2107621133327484 -0.025039494037628174 0.1833553910255432 -0.654606282711029 -0.1292116343975067 0.25462666153907776 0.639222264289856 0.271181583404541 0.401721328496933 -0.30904829502105713 0.5874221324920654 0.6467722058296204 0.19468159973621368 0.03972628712654114 -0.5204404592514038 0.26898378133773804 -0.647702693939209 -0.09678173065185547 -0.2876259982585907 -0.2783140540122986 0.5488636493682861 0.37269604206085205 0.373334676027298 0.6196451187133789 0.2402692586183548 -0.5861803889274597 0.45245975255966187 0.5559234023094177 0.44077175855636597 0.29730451107025146 -0.0694415345788002 -0.3156408369541168 -0.30741629004478455 -0.58830326795578 0.4896540343761444 -0.3741944134235382 0.5386125445365906 -0.1303996592760086 0.008707505650818348 -0.5984860062599182 -0.30555710196495056 0.11975561827421188 -0.4008548855781555 -0.5838692784309387 0.08031727373600006 0.37124815583229065 0.11694273352622986 0.27981287240982056 -0.29381585121154785 -0.10553045570850372 0.10514421761035919 -0.39404818415641785 -0.1761515587568283 0.38002291321754456 0.24153147637844086 0.20308434963226318 0.0529678538441658 -0.6566797494888306 0.4278736412525177 0.26174500584602356 0.1010584905743599 -0.10454849898815155 0.5475215315818787 0.030456967651844025 -0.7347202301025391 -1.0951883792877197 -0.21992959082126617 -0.1429857611656189 -0.35385966300964355 -0.48433926701545715 0.3585520088672638 -0.5046256184577942 -0.14282017946243286 0.6458224058151245 -0.07576213032007217 0.4223708510398865 0.7578443288803101 -0.5310811400413513 -0.22871510684490204 0.6411628723144531 0.15436488389968872 0.834753155708313 -0.40286338329315186 -0.5188647508621216 -0.1098194345831871 -0.5176417827606201 -0.03235684335231781 0.5453596115112305 -0.1699010282754898 -0.23932841420173645 0.04323592036962509 -0.056721281260252 -0.06342699378728867 0.9641509652137756 0.35678404569625854 -0.42993417382240295 -0.03426172956824303 0.38410282135009766 -0.8334816694259644 -0.6218909025192261 0.12914714217185974 0.5880848169326782 0.0679125264286995 0.2670140862464905 0.014946041628718376 -0.050988566130399704 -0.10794494301080704 0.6072496771812439 -0.4373971223831177 -0.25018057227134705 0.3122650384902954
알려주세요 -0.5480453968048096 -0.8060468435287476 -0.4583401083946228 -1.0359909534454346 0.1158619150519371 -0.539789617061615 -0.0456557422876358 -0.41593486070632935 0.04042110592126846 -0.22665151953697205 0.12402945756912231 -0.20848047733306885 0.13756002485752106 -0.021634839475154877 0.29799509048461914 -0.4298437535762787 0.5102757811546326 0.03222066909074783 0.30400335788726807 -0.07708777487277985 -0.2269902378320694 -0.26530730724334717 0.3844829201698303 0.5731806755065918 -0.23127807676792145 0.48044466972351074 0.7076837420463562 -0.4437348544597626 0.49104854464530945 -0.1323535442352295 0.13655775785446167 0.021702159196138382 0.14716114103794098 -0.10128387808799744 0.09762565791606903 -0.48966896533966064 0.22406525909900665 0.3733527362346649 -0.7007783055305481 -0.504184365272522 -0.0017633965471759439 0.14195485413074493 -0.24369020760059357 0.6372582912445068 -0.412131667137146 -0.4618745744228363 -0.11457616090774536 -0.12087468057870865 -0.5727087259292603 0.19688370823860168 0.24843670427799225 -0.0014403621898964047 0.028675613924860954 -0.18589960038661957 -0.06806603074073792 0.1594253033399582 -0.11476957052946091 0.9987490773200989 0.2893824875354767 0.5805649757385254 0.12390925735235214 0.6851069927215576 -0.28549206256866455 0.23654691874980927 -0.2534158527851105 -0.5038610100746155 -0.460016667842865 -0.5036123394966125 0.16249556839466095 0.04655489698052406 -0.17886582016944885 0.06320983916521072 0.33586591482162476 -0.6200535893440247 0.31287825107574463 0.31524309515953064 0.2017296701669693 0.10071735829114914 -0.5513492226600647 -0.08842702209949493 -0.5315964818000793 0.5986037254333496 0.5193263292312622 0.21080119907855988 0.4710922837257385 -0.36499619483947754 -0.32589757442474365 -0.05942002311348915 -0.7694008946418762 -0.1439821869134903 0.022185733541846275 -0.12597230076789856 -0.6382104158401489 0.2857648730278015 0.8327465653419495 0.3387438654899597 -0.46330925822257996 0.6239930391311646 0.27520477771759033 0.15409140288829803 -0.14444324374198914 0.3804628849029541 0.42135336995124817 0.5288530588150024 0.03014429658651352 -0.30308473110198975 0.5572686195373535 0.20838876068592072 0.08258029818534851 0.6991286873817444 0.40358680486679077 -0.3620830774307251 -0.55145263671875 0.2344096153974533 0.16454780101776123 -0.38149961829185486 -0.33700644969940186 -0.815102219581604 -0.2779999375343323 -0.1801297664642334 -0.6609155535697937 -0.47641721367836 -0.1521703004837036 0.11311167478561401 -0.47170138359069824 -0.08260887116193771 -0.35716578364372253 -0.40593722462654114 0.4655793607234955 0.33363181352615356 -0.24384701251983643 -0.4793927073478699 -0.010642308741807938 0.59669429063797 -0.1623235046863556 0.6971441507339478 0.22490689158439636 -0.09663239866495132 -0.7407066226005554 -0.5968016982078552 -0.4952092468738556 0.3216971755027771 -0.9483529925346375 -0.039222415536642075 -0.05464443191885948 -0.38704124093055725 0.5395669937133789 -0.2736566960811615 -0.2854757606983185 0.446573406457901
queen 0.13362620770931244 -0.32830703258514404 0.06386987864971161 0.8623029589653015 -0.10992150008678436 -0.01162785105407238 0.6437997221946716 0.057737141847610474 -0.32867130637168884 0.07647650688886642 0.09130675345659256 0.14239172637462616 -0.284745454788208 0.22021573781967163 -0.004387348890304565 0.3469606339931488 0.11745556443929672 0.07355152070522308 0.5431584119796753 0.02588842436671257 -0.3465212881565094 -0.008521709591150284 -0.17270104587078094 -0.549524188041687 -0.14622364938259125 -0.022704754024744034 -0.2300165444612503 -0.026779277250170708 0.11685623973608017 -0.3380739092826843 0.31845441460609436 -0.22963105142116547 0.04968297481536865 0.00851202942430973 0.24403749406337738 -0.2130550742149353 -0.027462361380457878 0.33582597970962524 -0.49860894680023193 0.06382134556770325 0.23184816539287567 -0.06233793869614601 -0.03985163941979408 0.10931864380836487 -0.25794920325279236 0.33563756942749023 0.2386072278022766 -0.06779524683952332 -0.23189203441143036 0.13210028409957886 0.0756155475974083 0.15520228445529938 -0.3305746614933014 -0.05532369390130043 -0.22381240129470825 -0.3939839005470276 0.2192971259355545 -0.09495661407709122 0.010488485917448997 0.07711702585220337 0.03101000376045704 -0.008100606501102448 0.33090993762016296 -0.11733151972293854 -0.17311996221542358 0.8417276740074158 -0.2505994737148285 0.6431422233581543 0.26199787855148315 0.19988079369068146 -0.5641193389892578 0.09962093830108643 -0.00639897957444191 0.21716472506523132 -0.006681130267679691 0.3999312222003937 0.6308335065841675 -0.1692306250333786 -0.38061314821243286 -0.14348918199539185 0.13189396262168884 0.07012378424406052 -0.16070307791233063 -0.44604116678237915 0.012124298140406609 0.4184318780899048 0.17104114592075348 -0.30821964144706726 0.08064567297697067 0.34567421674728394 -0.3307287096977234 -0.0890422835946083 0.46532854437828064 0.284234881401062 0.6426795125007629 -0.27161017060279846 -0.49585258960723877 0.3938072621822357 0.21027453243732452 -0.02842705324292183 0.10686039179563522 0.15359976887702942 -0.01623903214931488 -0.21878299117088318 -0.7213369011878967 -0.0855247750878334 -0.14857293665409088 -0.2971893548965454 0.026287537068128586 -0.12698133289813995 -0.44449201226234436 -0.04781558737158775 0.36654743552207947 -0.3643709123134613 0.1623629778623581 0.16577084362506866 -0.040070053189992905 -0.13840337097644806 0.09374551475048065 0.18944241106510162 0.8205642700195312 -0.3724072277545929 -0.05653678998351097 0.2406885027885437 -0.9871600866317749 -0.14950112998485565 0.6941242814064026 -0.054637663066387177 -0.6784243583679199 -0.48600873351097107 0.027336029335856438 0.16424624621868134 0.46597543358802795 0.20689047873020172 -0.11077901721000671 -0.011475523002445698 0.19915737211704254 -0.6067844033241272 -0.4234914481639862 -0.19170178472995758 0.676886260509491 -0.34784233570098877 0.11821103096008301 -0.1507079303264618 -0.07480830699205399 0.019566765055060387 0.3594609797000885 -0.11837992817163467 -0.28310126066207886 0.343948096036911
king -0.5438851118087769 -0.17296400666236877 -0.13023683428764343 0.685986340045929 0.01448577456176281 0.22132201492786407 -0.07151930779218674 0.0646333321928978 0.06103229895234108 0.17701639235019684 -0.46336278319358826 -0.34173524379730225 -0.25149714946746826 0.07039478421211243 0.182130828499794 0.25458911061286926 0.25517717003822327 -0.38591268658638 -0.07108025997877121 -0.04282078146934509 -0.793369472026825 0.03411296755075455 0.2061947137117386 -0.34898123145103455 -0.37436842918395996 -0.1512444168329239 -0.393382728099823 -0.13142940402030945 -0.4408510625362396 0.18854501843452454 -0.19672709703445435 -0.2002086341381073 0.10550989955663681 0.15339228510856628 0.7369846105575562 -0.6185287237167358 0.05210614949464798 0.530738353729248 -0.3211374282836914 0.35969969630241394 -0.11429651081562042 -0.043583035469055176 -0.012653755955398083 -0.12378421425819397 0.015471374616026878 0.16778279840946198 0.4494665563106537 -0.19191716611385345 0.0785503014922142 0.25432664155960083 0.838676393032074 -0.04063735529780388 0.3028363585472107 -0.15428844094276428 0.2069920301437378 -0.6819310188293457 -0.00944323930889368 -0.04340985789895058 -0.13183541595935822 0.45009735226631165 -0.011498929001390934 0.49891871213912964 0.07309781759977341 0.39315128326416016 -0.31344032287597656 0.4285866320133209 0.5866765379905701 0.1354096531867981 0.7062724232673645 -0.3529539406299591 0.016001949086785316 -0.1965395212173462 -0.20776207745075226 0.4143034517765045 -0.08070457726716995 0.11817236244678497 0.15768487751483917 0.05202282592654228 -0.34920331835746765 0.367664098739624 0.3264722228050232 0.16268227994441986 -0.2601652443408966 -0.2559226453304291 0.2568497061729431 0.04591808095574379 -0.01609041914343834 -0.38158077001571655 0.46757614612579346 -0.22590439021587372 0.2511730492115021 -0.02006383426487446 -0.06318522989749908 0.1326592117547989 0.09561692178249359 0.14548759162425995 0.05933425575494766 0.2810259759426117 0.15264393389225006 0.26771143078804016 0.11870754510164261 0.08851413428783417 -0.03448183462023735 -0.31206071376800537 -0.5555314421653748 -0.1743989884853363 -0.13232985138893127 -0.396472305059433 -0.2988234758377075 0.1492529809474945 -0.6466687321662903 0.050516366958618164 -0.04709702730178833 0.1387428343296051 0.4921386241912842 0.9333289265632629 -0.20811037719249725 -0.006085785571485758 0.002341066487133503 -0.1769331842660904 0.34136104583740234 -0.2659910023212433 -0.18980377912521362 0.24526487290859222 0.2633477449417114 0.007328950334340334 0.28884854912757874 0.09359082579612732 -0.5041921734809875 0.19718995690345764 -0.40992701053619385 -0.3095768690109253 0.4739450216293335 0.47397834062576294 -0.10737942159175873 0.058988217264413834 0.26944035291671753 -0.3586883842945099 -0.4757935404777527 -0.13437676429748535 0.4499623477458954 0.08816350996494293 -0.07176478207111359 -0.10647395253181458 -0.13808698952198029 0.1945115327835083 0.9866883158683777 -0.9636120200157166 0.3528277277946472 -0.20541347563266754
바코드 -0.23665176331996918 0.18572165071964264 0.3365287184715271 0.18814963102340698 -0.1733708679676056 -0.3440910875797272 0.19888249039649963 -0.18306578695774078 -0.1304038166999817 -0.22549213469028473 -0.0938878282904625 0.23349402844905853 0.19269856810569763 0.12830224633216858 -0.02144760638475418 -0.8252408504486084 0.23179037868976593 -0.3199343681335449 -0.2685750126838684 0.09943035244941711 0.01441875658929348 0.17386488616466522 -0.016719814389944077 -0.23701798915863037 -0.24586635828018188 0.4270983040332794 0.5691191554069519 0.44635719060897827 0.1542719155550003 -0.19473956525325775 0.20691455900669098 -0.3104257583618164 -0.12887685000896454 -0.4534895420074463 -0.37213775515556335 0.17675352096557617 0.08195855468511581 -0.017316579818725586 -0.606989860534668 -0.5780043601989746 -0.41630351543426514 0.15752749145030975 -0.028579898178577423 0.5478143095970154 0.291733980178833 0.3863842785358429 0.07732197642326355 0.11775926500558853 -0.24528641998767853 -0.009912651032209396 0.3335304260253906 -0.007578299380838871 0.7758288383483887 0.400053471326828 -0.1722726821899414 -0.05374487489461899 0.026732629165053368 0.14150094985961914 -0.07471124827861786 -0.23086847364902496 0.3982636332511902 0.595298171043396 -0.2634619474411011 0.4497941732406616 -0.18598395586013794 -0.0857175812125206 0.030989818274974823 -0.5215213894844055 0.08695697039365768 -0.3231339752674103 0.04100353643298149 -0.259170800447464 0.30904918909072876 0.0706227719783783 -0.35125666856765747 -0.2170039415359497 0.21952520310878754 0.3730774521827698 0.3634665012359619 -0.043332722038030624 -0.16114294528961182 -6.914352998137474E-4 0.003943257499486208 0.43254438042640686 -0.24769222736358643 -0.2851826846599579 -0.17085224390029907 0.5151995420455933 -0.16631703078746796 -0.31136393547058105 -0.1252174973487854 0.07169314473867416 0.04089657962322235 0.2773289680480957 0.15430305898189545 0.2159956842660904 -0.32504016160964966 0.17187924683094025 0.09463083744049072 -0.08886923640966415 -0.10869292914867401 0.2141423523426056 0.43528467416763306 -0.026225553825497627 -0.13430197536945343 -0.2704118490219116 0.6159433126449585 0.4186343848705292 -0.11965437233448029 0.36221805214881897 0.2527231276035309 0.2130405753850937 -0.13209190964698792 -0.07401950657367706 -0.12507237493991852 -0.5881989598274231 0.1945606768131256 -0.07189730554819107 0.128251314163208 -0.4201241731643677 0.16194257140159607 0.11584766954183578 -0.12930800020694733 0.10861660540103912 -0.5057097673416138 0.16007457673549652 -0.33335208892822266 -0.15095527470111847 0.07919907569885254 0.09795109182596207 0.31155842542648315 -0.39470261335372925 -0.03758681192994118 -0.2218003273010254 -0.09302252531051636 -0.006422070786356926 -0.06559957563877106 -0.1645510345697403 0.1107926070690155 0.17122070491313934 -0.006070597097277641 -0.06609359383583069 -0.42731139063835144 0.4093138873577118 -0.14614559710025787 -0.2457454651594162 -0.01836084946990013 0.3740690052509308 -0.023007933050394058 0.1299297958612442
girl 0.2327950894832611 -0.13793441653251648 -0.2892484664916992 0.6302347183227539 -0.3829127550125122 0.23231060802936554 0.274848997592926 -0.013409256935119629 -0.11930042505264282 -0.31839627027511597 -0.01580684632062912 -0.2652945816516876 -0.022533241659402847 0.2673582136631012 0.24217256903648376 0.7800688147544861 0.28533175587654114 0.10611188411712646 0.0823989138007164 0.48160651326179504 -0.7250486612319946 0.2657053768634796 0.03256349265575409 -0.6125771403312683 -0.06484781950712204 -0.3469090461730957 -0.2900087535381317 0.2576013505458832 -0.430888831615448 -0.2954539358615875 0.17789044976234436 -0.2551150918006897 0.33903664350509644 0.28182169795036316 0.4149917662143707 -0.22148175537586212 -0.18322911858558655 0.2027738094329834 -0.2878477871417999 0.30904147028923035 -0.09022156149148941 0.13265886902809143 -0.1187058612704277 -0.1317594200372696 -0.30143997073173523 0.2706843316555023 0.23657792806625366 -0.04977906495332718 -0.5194438099861145 0.23009437322616577 0.5387937426567078 0.22151727974414825 0.1561928540468216 -0.32763466238975525 0.045811377465724945 -0.5944446325302124 0.19961822032928467 0.05859604477882385 -0.11019022017717361 0.333278089761734 0.27814003825187683 0.35189732909202576 0.1001315638422966 0.5275110602378845 -0.27797725796699524 0.5236632227897644 0.05163664370775223 -0.04563938081264496 0.3064206838607788 -0.25073954463005066 -0.3378630578517914 0.13736896216869354 0.29594162106513977 -0.07134878635406494 -0.008978466503322124 0.45569878816604614 0.19956298172473907 -0.1580023169517517 -0.07754956185817719 -0.07067609578371048 0.12396720796823502 -0.03496907651424408 -0.3341349959373474 -0.9398746490478516 -0.2667769193649292 0.638116180896759 0.04838915541768074 -0.11578572541475296 0.23622380197048187 0.06309852004051208 0.3342888355255127 0.09090700000524521 0.06486827880144119 0.37250858545303345 0.5150266289710999 0.5389913320541382 0.13752831518650055 0.2106732875108719 0.43283966183662415 0.39541926980018616 0.08115294575691223 -0.1996259242296219 -0.1468152403831482 -0.631715714931488 -1.211838960647583 0.1005922481417656 -0.6549242734909058 -0.36474671959877014 -0.7301493883132935 -0.09209799766540527 -0.8002964854240417 0.4524540305137634 0.4612904191017151 0.07303567975759506 -0.19467149674892426 0.7903627157211304 -0.2295798808336258 0.1978721171617508 0.16659188270568848 -0.1130986213684082 0.675727128982544 -0.5941075682640076 0.4542918801307678 0.18880730867385864 -0.2241412103176117 0.20135386288166046 0.35055768489837646 -0.47613760828971863 -0.5114086866378784 -0.04922981560230255 -0.5630923509597778 0.647362232208252 0.5406420230865479 0.12797175347805023 -0.1987011879682541 0.3367507755756378 0.010325268842279911 -0.1653834581375122 -0.8249639868736267 0.1382712870836258 0.2537193298339844 -0.3901181221008301 0.4157826006412506 -0.7407407760620117 -0.48536941409111023 0.6400651931762695 0.7491558194160461 -0.56410151720047 0.5849104523658752 0.23975436389446259
boy -0.261101633310318 -0.48142552375793457 0.1531597524881363 1.2750967741012573 0.062397245317697525 0.23996484279632568 0.5814229249954224 0.18520990014076233 -0.3171181082725525 0.5200309753417969 -0.4308396577835083 0.19042064249515533 -0.7413428425788879 -0.16109612584114075 -0.6022585034370422 0.04533066600561142 0.39946249127388 -0.5198639631271362 0.2604137659072876 -0.34555768966674805 -0.8927014470100403 0.0958888828754425 0.1430618315935135 -0.48834648728370667 -0.65745609998703 -0.2522926330566406 -0.04827464371919632 0.13928702473640442 -0.1347143054008484 0.20259128510951996 -0.2071787565946579 -0.028963929042220116 -0.12239553034305573 -0.18406756222248077 0.6500795483589172 -0.34667107462882996 0.3341708183288574 0.3909379243850708 -0.8412185311317444 -0.26914235949516296 -0.1305903196334839 -0.40982046723365784 0.19265979528427124 -0.01573108695447445 -0.1809656322002411 0.04196666553616524 0.539600133895874 -0.25608789920806885 -0.39761367440223694 -0.11115984618663788 0.5932002067565918 -0.18764960765838623 -0.25153765082359314 -0.11430095881223679 -0.2925577759742737 -0.985305666923523 0.39160993695259094 -0.3191297948360443 -0.6153125166893005 -0.29874929785728455 -0.03248853236436844 -0.03833217918872833 0.09887175261974335 0.11999698728322983 0.11118674278259277 0.9306336045265198 0.33290019631385803 0.7475600242614746 0.7152312397956848 0.22086232900619507 -0.3891049921512604 -0.20190569758415222 -0.34921348094940186 0.8919302225112915 -0.38671064376831055 -0.05238117277622223 0.7870546579360962 -0.04032113775610924 -0.23962938785552979 -0.032184455543756485 0.17963442206382751 -0.039153214544057846 -0.14265093207359314 0.36810752749443054 0.24203814566135406 0.1590522676706314 -0.02433829940855503 -0.34025999903678894 0.41583889722824097 0.1070789024233818 -0.22887860238552094 0.20114605128765106 -0.04077494144439697 0.4213484823703766 0.3040013909339905 0.20577074587345123 -0.12312906235456467 0.314644992351532 -0.1265697330236435 0.0012368957977741957 0.10525068640708923 0.32120490074157715 0.18978792428970337 -0.6586237549781799 -0.7164560556411743 -0.5417708158493042 0.16172829270362854 -0.4748815596103668 -0.04187174141407013 -0.15158340334892273 -0.05784648656845093 -0.19470833241939545 0.05548049509525299 -0.19515419006347656 0.8626403212547302 0.9464071393013 -0.05959341302514076 -0.08617725223302841 -0.09683714807033539 0.35646989941596985 0.6040413975715637 0.30247336626052856 -0.5370712876319885 0.3863450586795807 -0.7921635508537292 -0.305887371301651 0.7604700922966003 0.1656060665845871 -0.8430434465408325 -0.24035592377185822 0.11465393006801605 -0.9191033244132996 0.7160830497741699 -0.18123625218868256 -0.08010261505842209 -0.476993203163147 0.18651257455348969 -0.7507936358451843 0.1396634429693222 0.18156808614730835 0.7319543957710266 -0.38147178292274475 0.07805527001619339 0.38204970955848694 -0.043735552579164505 -0.19777707755565643 0.5468820929527283 -0.45870736241340637 -0.1373707503080368 -0.12871193885803223
판매 0.35376256704330444 0.3863919675350189 0.3452151417732239 -0.05672147125005722 -0.0410388708114624 0.27214547991752625 0.15475250780582428 0.12075191736221313 -0.5644437074661255 0.016578558832406998 -0.20238403975963593 0.1754635125398636 0.5523195266723633 -0.09075185656547546 0.5299746990203857 -0.12827877700328827 -0.14190778136253357 -0.08516082912683487 -0.09779295325279236 0.05702449753880501 0.12344321608543396 0.09312790632247925 -0.25199228525161743 0.04368903115391731 0.16406546533107758 -0.04152042418718338 -0.08266372978687286 0.7197005152702332 -0.16180916130542755 -0.32495298981666565 -0.004445540253072977 0.0636238157749176 0.3754851222038269 -0.5453559756278992 -0.300344318151474 0.3867740333080292 -0.07195952534675598 -0.16927136480808258 -0.4990066885948181 -0.4816381633281708 -0.2719945013523102 -0.26443156599998474 0.2690370976924896 0.5607518553733826 0.2656196057796478 0.09601783752441406 -0.11260997503995895 -0.19704364240169525 -0.32802265882492065 -0.056267499923706055 0.2954413890838623 0.3123994767665863 0.9248666167259216 0.328652024269104 -0.08900243788957596 -0.05761021375656128 -0.27740275859832764 -0.22380492091178894 0.05195292830467224 -0.27914583683013916 0.5617392659187317 0.2698793113231659 -0.06784773617982864 0.22512003779411316 0.10855796188116074 0.03617039695382118 0.1674128919839859 -0.43104684352874756 0.06135447695851326 -0.09516560286283493 0.30340826511383057 -0.339712917804718 0.4120539426803589 -0.20456765592098236 -0.18754470348358154 -0.3264060318470001 0.1901061236858368 -0.20522618293762207 0.3691728115081787 0.23121139407157898 -0.1081080287694931 0.03983824700117111 -0.027181455865502357 -0.4401068091392517 0.09499054402112961 0.015518264845013618 -0.3078799545764923 -0.21658164262771606 -0.2910875678062439 -0.228424072265625 0.4457506239414215 0.15688645839691162 0.07746709138154984 0.06560011208057404 0.20374614000320435 -0.11813938617706299 -0.3047437071800232 -0.02136417105793953 0.3432806730270386 -0.12482476234436035 -0.17719227075576782 0.04689212143421173 0.18036241829395294 -0.11956042051315308 -0.23539599776268005 -0.07701387256383896 0.5419418811798096 -0.014960831962525845 -0.22083720564842224 0.5006904006004333 0.4340914785861969 0.23399342596530914 -0.4323013126850128 0.20670998096466064 -0.28177234530448914 0.020305819809436798 -0.1938571035861969 -0.13440273702144623 -0.2155010849237442 -0.1217760369181633 -0.005908381659537554 -0.404186874628067 0.2539566159248352 -0.08652923256158829 -0.451933354139328 -0.2860468029975891 -0.4695492088794708 0.2644336521625519 0.057801272720098495 0.3148312270641327 -0.09420086443424225 -0.09241300076246262 -0.35556283593177795 0.1870729625225067 -0.13794176280498505 0.07628188282251358 -0.10414709895849228 -0.05979947745800018 0.045814841985702515 -0.5327447652816772 0.15435287356376648 -0.006856250111013651 -0.049834154546260834 0.12303264439105988 -0.4303239583969116 -0.488418310880661 -0.14601142704486847 0.3220665156841278 0.18630388379096985 0.24375976622104645
음식물 0.26284390687942505 0.054170262068510056 0.011787747964262962 -0.13266621530056 0.14625714719295502 -0.27951157093048096 0.05230918154120445 0.12341497838497162 -0.19455046951770782 0.28355908393859863 -0.08990229666233063 -0.21069279313087463 0.262869656085968 -0.02584395371377468 0.5619606971740723 0.07591602206230164 0.6041655540466309 0.25226765871047974 0.03607849031686783 -0.2050725370645523 -0.3278648853302002 0.13533347845077515 -0.23111939430236816 0.07302526384592056 -0.0019879587925970554 -0.33765581250190735 0.37319818139076233 0.03236479312181473 -0.1051759123802185 -0.12928761541843414 0.2089751809835434 0.32096320390701294 0.34630224108695984 -0.2272491157054901 0.45712757110595703 -0.14794941246509552 0.2946378290653229 0.27322325110435486 -0.2809983789920807 -0.22467689216136932 -0.016923660412430763 0.029455946758389473 0.0672835037112236 0.25208091735839844 -0.2134954035282135 -0.6714130640029907 0.13973407447338104 -0.002023890847340226 -0.25398075580596924 0.15701903402805328 -0.14711114764213562 0.3976908326148987 0.18497811257839203 -0.08150643855333328 -0.15972615778446198 0.02872118540108204 0.03226858004927635 0.15784838795661926 0.0260060653090477 0.20090889930725098 0.053805600851774216 0.4627223014831543 -0.10472993552684784 -0.16003350913524628 0.1680215746164322 -0.17160119116306305 -0.26773056387901306 -0.14225493371486664 0.3096546530723572 -0.2289608120918274 -0.274304062128067 0.05162835866212845 0.00932819489389658 -0.12120473384857178 -0.05594491586089134 0.19930513203144073 0.21293677389621735 -0.5672361850738525 -0.3702027499675751 0.20654961466789246 -0.11469043791294098 0.5902225375175476 0.25101763010025024 -0.5199027061462402 0.17619732022285461 0.06742288917303085 -0.027346286922693253 -0.22499221563339233 -0.21318377554416656 0.023634430021047592 0.05016703903675079 0.2670580744743347 -0.5942022800445557 0.03770487383008003 0.30246034264564514 -0.0038582743145525455 -0.34806984663009644 0.2983945310115814 0.2121424674987793 0.7302368879318237 0.3797471225261688 0.2885226309299469 0.39506909251213074 -0.22511114180088043 0.011613891460001469 -0.24507227540016174 0.0580359548330307 -0.29945048689842224 0.06823171675205231 0.3657497465610504 -0.027863705530762672 0.242417111992836 0.17404115200042725 0.37036755681037903 -0.08671850711107254 -0.1764516532421112 -0.38465726375579834 -0.12401009351015091 -0.19933277368545532 -0.29127076268196106 -0.16098198294639587 -0.494937539100647 -0.12888973951339722 -0.13088321685791016 -0.1318953037261963 0.11616068333387375 -0.04239680618047714 0.17340321838855743 0.07930843532085419 0.2012159526348114 -0.1682363897562027 -0.17944328486919403 0.4415047764778137 0.5238268375396729 0.47657474875450134 -0.03482683002948761 -0.06143031641840935 -0.44153133034706116 -0.012609818018972874 -0.4641248285770416 0.0913160964846611 0.27511659264564514 0.4189662039279938 -0.0876728817820549 -0.2249348908662796 -0.1958574801683426 -0.12240377068519592 -0.25208795070648193 -0.10957666486501694 -0.16095153987407684
쓰래기 0.034913334995508194 0.14918915927410126 -0.1005668118596077 0.08547168225049973 -0.40689921379089355 0.02288058027625084 -0.09018153697252274 0.030584145337343216 0.013377254828810692 -0.1316337138414383 -0.24223600327968597 -0.5309755802154541 0.17181114852428436 0.10259903222322464 0.021861374378204346 -0.06617207825183868 0.11469810456037521 -0.0815419927239418 -0.10906969755887985 -0.21390409767627716 0.2259361743927002 -0.03648548573255539 0.4400772750377655 -0.09195011854171753 -0.29400795698165894 0.28798016905784607 0.043231647461652756 0.15010692179203033 -0.06407608836889267 0.13636837899684906 0.049925561994314194 0.1866735965013504 0.3385021388530731 0.05521925166249275 -0.04090595617890358 -0.042895328253507614 -0.17035356163978577 0.358152836561203 0.04820798709988594 -0.29295316338539124 -0.13586319983005524 -0.289868026971817 -0.09678921848535538 0.2552333176136017 -0.09247137606143951 0.19061502814292908 0.4340376555919647 -0.18475918471813202 -0.06722411513328552 0.35019558668136597 -0.17865848541259766 0.06419981271028519 -0.10236518085002899 -0.06611049920320511 -0.017916623502969742 -0.12105423957109451 -0.28615689277648926 -0.09610512852668762 0.19280044734477997 -0.23063091933727264 0.12984685599803925 0.013646974228322506 0.10945481806993484 -0.007356880698353052 -0.25146886706352234 0.22422759234905243 0.009461913257837296 0.11145433038473129 0.3426489531993866 0.09091256558895111 0.2679157555103302 -0.4011654853820801 0.21453340351581573 0.17492753267288208 0.21978816390037537 -0.33915191888809204 0.2228877693414688 0.008229116909205914 0.003907191101461649 -0.06504404544830322 0.11142763495445251 0.08459088951349258 0.25096091628074646 0.05632508918642998 0.13612771034240723 -0.15495692193508148 0.15480242669582367 -0.061805520206689835 0.2037457823753357 -0.03900701925158501 0.0103047676384449 0.23810258507728577 -0.1885402798652649 0.11966375261545181 0.049108780920505524 0.40812262892723083 -0.042962707579135895 -0.043933987617492676 -0.1993197649717331 0.06480569392442703 -0.27279427647590637 0.13318182528018951 0.008215648122131824 -0.12405557930469513 -0.3577953577041626 0.15393170714378357 0.15212048590183258 -0.19788344204425812 0.14027856290340424 0.32637959718704224 0.1644621640443802 0.4001396894454956 -0.25216951966285706 -0.36332809925079346 -0.07998878508806229 0.24230419099330902 -0.026336008682847023 0.3648047149181366 -0.15730611979961395 0.18423570692539215 0.2343544214963913 -0.13515858352184296 -0.14158999919891357 0.4173499047756195 -0.26755207777023315 -0.15076105296611786 0.35409215092658997 0.0704212337732315 -0.13309895992279053 0.21411588788032532 -0.08195969462394714 0.13361024856567383 0.2109610140323639 0.26455461978912354 -0.16109001636505127 0.05047059804201126 -0.0279641505330801 0.1262892782688141 -0.23120564222335815 -0.24320384860038757 0.09273060411214828 -0.341332346200943 0.07730112224817276 -0.35099416971206665 0.1142740473151207 0.10749576985836029 0.2701011598110199 -0.1519458144903183 -0.29305627942085266 0.14754363894462585
봉투 0.19581319391727448 -0.16745306551456451 -0.09748836606740952 0.1138504222035408 0.08073142170906067 -0.2470778226852417 -0.005041914060711861 -0.02392427995800972 0.01454978808760643 0.20031702518463135 0.06370922923088074 -0.05141092464327812 -0.014952212572097778 -0.054372888058423996 0.030868133530020714 -0.4849662184715271 0.052772849798202515 -0.06817767769098282 0.026905853301286697 -0.08647625893354416 -0.06990355998277664 -0.1513223797082901 -0.17762787640094757 0.07106523960828781 -0.041933197528123856 0.35890552401542664 0.2366146743297577 -0.3123956620693207 -0.1041012704372406 0.14865632355213165 -0.1672735959291458 0.013665750622749329 -0.014821629039943218 -0.09393239766359329 -0.13430160284042358 -0.08029971271753311 0.02560575306415558 0.26139748096466064 -0.38386476039886475 -0.08079876005649567 0.03275338560342789 0.1302221715450287 -0.13729561865329742 0.1396205872297287 0.11320824921131134 0.009178891777992249 0.10244321823120117 0.300229012966156 -0.27577024698257446 -0.07631463557481766 0.13090312480926514 -0.11540782451629639 0.22032135725021362 0.0985957607626915 0.12020411342382431 -0.22556516528129578 0.1411820650100708 0.3983914256095886 -0.15238088369369507 -0.07132359594106674 -0.2040252834558487 0.3450646996498108 -0.411885142326355 -0.059880681335926056 -0.17740309238433838 0.197092205286026 0.15111561119556427 -0.4241454005241394 -0.08417157083749771 -0.08331366628408432 -0.21034586429595947 -0.28321942687034607 0.17686237394809723 -0.1685592532157898 0.2642844021320343 -0.10036725550889969 0.017722416669130325 -0.08934198319911957 -0.19964513182640076 -0.12049636244773865 -0.12805047631263733 0.04052663967013359 0.095714271068573 0.17821046710014343 0.1731260120868683 -0.20752277970314026 -0.0857553631067276 0.22517341375350952 0.09393751621246338 -0.009291361086070538 0.017110571265220642 -0.09800972044467926 -0.13818718492984772 0.056916892528533936 0.5928285121917725 0.21618032455444336 -0.2845083773136139 0.30002039670944214 0.11111415177583694 0.3418314456939697 0.031122490763664246 0.24660533666610718 0.290637731552124 0.2159944772720337 0.051979850977659225 -0.12918363511562347 0.12428852915763855 -0.021635374054312706 -0.20442885160446167 0.2100364863872528 0.08928294479846954 0.16776886582374573 0.016507698222994804 -0.19199365377426147 0.05772976204752922 -0.27379822731018066 0.3353005051612854 -0.013755190186202526 -0.16575028002262115 -0.16640140116214752 -0.3135177195072174 -0.21400032937526703 0.028500834479928017 -0.16812089085578918 -0.20348410308361053 0.17768853902816772 -0.0016065434319898486 0.043938394635915756 -0.02673594281077385 -0.01550699770450592 -0.05716324225068092 -0.29322418570518494 -0.028732677921652794 -0.1781802624464035 0.4189525246620178 -0.06056356057524681 -0.23677289485931396 0.08215595036745071 -0.15121202170848846 -0.015457609668374062 -0.2654629051685333 0.3367033004760742 -0.275001585483551 0.1290498673915863 0.25872281193733215 -0.12524984776973724 -0.08361702412366867 0.2116132527589798 -0.26583656668663025 0.19178469479084015
man -0.1890019178390503 -0.22321072220802307 -0.09259603917598724 0.8084386587142944 -0.18000541627407074 -0.21788209676742554 0.5751668214797974 0.21333976089954376 -0.17817199230194092 -0.030942581593990326 -0.17216075956821442 -0.5011274814605713 -0.8904728293418884 -0.5109714269638062 -0.7070618271827698 -0.06298060715198517 0.45078882575035095 -0.043483272194862366 0.26561203598976135 0.1754019409418106 -0.8463261127471924 -0.16812445223331451 0.1339098960161209 -0.7510828375816345 -0.7383413910865784 0.2403121292591095 -0.012899649329483509 -0.2880702316761017 0.11162363737821579 0.15396565198898315 -0.14445644617080688 -0.8349966406822205 -0.1977173238992691 0.704247772693634 0.6958901882171631 -0.48827314376831055 -0.34582602977752686 0.232131227850914 -1.0843888521194458 0.24054697155952454 0.10810253769159317 -0.48927363753318787 0.33570921421051025 0.1438332498073578 -0.5907073616981506 0.41115814447402954 0.8672074675559998 -0.6708024740219116 -0.017450770363211632 -0.10890873521566391 0.4932703971862793 0.17801976203918457 -0.04581556096673012 0.4631575644016266 -0.35093995928764343 -0.5885167121887207 0.26883649826049805 0.1559462994337082 0.27900025248527527 -0.12443660199642181 -0.23790998756885529 0.6537092924118042 -0.6326877474784851 0.2123803198337555 -0.24849508702754974 1.1487321853637695 0.10298758000135422 0.463481068611145 0.6884817481040955 0.11053846031427383 -0.12677209079265594 -0.11233185231685638 0.2684742212295532 0.27068865299224854 -0.018539899960160255 0.19935311377048492 0.8741018176078796 0.34078267216682434 -0.44352635741233826 0.10139105468988419 0.17835800349712372 0.567812979221344 -0.14056119322776794 -0.27742815017700195 -0.10160249471664429 0.5641942620277405 -0.08981788903474808 -0.4445415139198303 0.6944786906242371 0.09797123074531555 0.28754571080207825 -0.2507815659046173 0.05153575539588928 0.4494834542274475 0.9033331871032715 0.019534988328814507 -0.40372076630592346 0.8317959308624268 -0.17530393600463867 0.1742115616798401 -0.03851648420095444 -0.17387814819812775 -0.3477184772491455 0.17169982194900513 -0.7368994355201721 -0.2687443792819977 -0.17303389310836792 -0.23417676985263824 -0.04390878975391388 -0.17540208995342255 -0.7333210110664368 0.042320769280195236 0.04886332154273987 -0.25090306997299194 0.6494519114494324 0.3510732054710388 0.613547682762146 -0.3897227346897125 0.1257750391960144 0.008710464462637901 0.6845319271087646 -0.4457055330276489 -0.2789965569972992 0.014341972768306732 -0.32643088698387146 -0.00905776210129261 0.2620668113231659 -0.09420078247785568 -1.3444492816925049 -0.36637118458747864 -0.08997968584299088 -0.018391858786344528 0.1648149937391281 0.5325666666030884 0.30079978704452515 -0.1832864135503769 0.07293502241373062 -0.475456565618515 -0.732235848903656 -0.02939455211162567 0.5663554072380066 -0.25762176513671875 -0.45423054695129395 -0.45790815353393555 -0.06158703565597534 0.46054309606552124 1.23875093460083 -0.7131365537643433 0.02056947350502014 -0.1069970354437828
바코드가 -0.5639585852622986 -0.027255678549408913 -0.37977513670921326 0.6764227747917175 -0.4695274829864502 0.19114384055137634 0.5227436423301697 -0.217402845621109 -0.032519616186618805 0.13709372282028198 -0.08066286891698837 -0.24935020506381989 -0.2238856703042984 0.20842953026294708 0.28590133786201477 0.35067659616470337 0.6389567852020264 -0.2001960277557373 0.07062219828367233 0.33398914337158203 -0.5577881932258606 0.2707256078720093 0.009321032091975212 -0.17310963571071625 0.3799511790275574 -0.22795723378658295 -0.20254190266132355 0.408456951379776 -0.08236444741487503 -0.58207106590271 0.46088600158691406 0.04456791654229164 -0.4925118386745453 0.29228475689888 0.10751613974571228 -0.5829657316207886 -0.2283000499010086 0.1418253779411316 -0.03528392314910889 -0.1849019080400467 0.1442197561264038 0.3284798860549927 0.4127386212348938 -0.19011345505714417 -0.01560521312057972 0.047276269644498825 0.033702459186315536 -0.041610583662986755 -0.2956933379173279 -0.2671394348144531 0.7657602429389954 -0.1325727254152298 0.13155139982700348 -0.13209427893161774 0.11301860213279724 -0.5437179207801819 0.9379097819328308 0.519565999507904 -0.5005281567573547 0.5529476404190063 0.5697543621063232 -0.06580935418605804 0.39049574732780457 0.17750874161720276 -0.19597285985946655 -0.3841213583946228 -0.625799298286438 -0.007437618914991617 0.23341432213783264 -0.11255661398172379 -0.07394207268953323 0.35805779695510864 0.40452611446380615 0.4069169759750366 0.3143719732761383 0.8022226691246033 0.022717803716659546 -0.08363022655248642 -0.32730576395988464 -0.068058542907238 0.10937429219484329 0.3553127646446228 0.061087656766176224 -0.07024252414703369 -0.323076069355011 -0.11627185344696045 -0.15329410135746002 0.44209152460098267 0.21549424529075623 -0.11481130123138428 0.1094159483909607 -0.2618929147720337 0.43288055062294006 -0.1731542944908142 0.14047445356845856 0.058903973549604416 0.15538276731967926 -0.1215294599533081 0.5363331437110901 -0.14937329292297363 0.11132250726222992 -0.4744425415992737 0.7745380401611328 0.08971133083105087 -0.3999622166156769 -0.07428519427776337 -0.5428036451339722 -0.29856032133102417 -0.3906577527523041 0.08245973289012909 -0.16516149044036865 -0.5551243424415588 0.12437065690755844 0.0029868572019040585 0.2339460849761963 0.39842167496681213 -0.2830217182636261 0.10775180906057358 -0.3887397348880768 -0.16720128059387207 0.2724025547504425 -0.21902643144130707 0.03603591024875641 0.5562255382537842 -0.23639920353889465 -0.36644208431243896 0.38125938177108765 -0.2648873031139374 -0.17100626230239868 -0.04089273512363434 -0.37055593729019165 0.013556990772485733 0.25771111249923706 -0.25315213203430176 -0.6095603108406067 0.15909644961357117 0.25111478567123413 -0.7560454607009888 0.19597215950489044 0.40021517872810364 0.6728116869926453 -0.23632200062274933 0.02245512418448925 0.2345043420791626 0.042172692716121674 -0.23111175000667572 0.3631998300552368 -0.11823263019323349 0.2829815745353699 0.12336701899766922
가격 0.22763025760650635 0.3898276388645172 0.4727261960506439 -0.2967819571495056 -0.22369830310344696 0.03069792315363884 0.44057363271713257 -0.013832985423505306 -0.279513418674469 -0.31795692443847656 -0.23909974098205566 0.32204195857048035 0.1339055597782135 -0.093110091984272 -0.057851642370224 -0.10303229838609695 0.3777276873588562 0.13656479120254517 -0.21620899438858032 0.3640041947364807 -0.2752741873264313 0.4035855829715729 -0.03899048641324043 -0.2472122460603714 -0.45608630776405334 -0.05472446233034134 0.6502968668937683 0.46727943420410156 0.2950654625892639 -0.18206046521663666 -0.027646571397781372 -0.12577824294567108 0.2041884958744049 -0.5300313234329224 0.2186363786458969 0.3085460364818573 0.36159783601760864 -0.15388062596321106 -0.8350793123245239 -0.6005109548568726 -0.33737897872924805 -0.23754706978797913 0.08241107314825058 0.5132685303688049 -0.2569658160209656 -0.07880234718322754 0.026014361530542374 -0.29668542742729187 -0.42713719606399536 0.05024906247854233 0.14603841304779053 0.40800580382347107 0.42554041743278503 0.0788625180721283 -0.38664352893829346 0.1596752554178238 -0.2372428923845291 -0.28435710072517395 0.11279910057783127 -0.23401862382888794 0.613033652305603 0.4452625513076782 -0.17912568151950836 0.5620458126068115 0.08107243478298187 -0.10779021680355072 -0.04112418368458748 -0.06940429657697678 0.2843632102012634 0.022360995411872864 0.2077222764492035 0.02065148390829563 -0.0064912596717476845 -0.10825355350971222 -0.7360374927520752 0.10867797583341599 0.22164863348007202 0.3021557331085205 0.3669024109840393 -0.0481523722410202 -0.3459632396697998 0.18378964066505432 -0.2558920085430145 0.021592222154140472 -0.26715123653411865 0.342887818813324 -0.24459002912044525 -0.040951985865831375 -0.5159205794334412 -0.0753912627696991 0.16483154892921448 0.1314924955368042 -0.3201809227466583 0.48106396198272705 -0.11165468394756317 0.340330570936203 -0.1623670905828476 0.15834565460681915 -0.06938382238149643 -0.09319952130317688 -0.24591828882694244 0.12152954190969467 -0.1461513638496399 -0.5971024036407471 -0.6950780153274536 -0.2783214747905731 0.34935346245765686 0.10759411007165909 -0.2138688713312149 0.0985206887125969 0.15446798503398895 0.015498547814786434 0.009176659397780895 0.4622592628002167 -0.017048442736268044 0.03176198527216911 -0.2584861218929291 -0.3990919888019562 0.4296114146709442 -0.06947873532772064 0.3226991593837738 0.029674384742975235 -0.3125954270362854 -0.2716887891292572 -0.3711443543434143 -0.09814587235450745 -0.558617889881134 -0.33250999450683594 -0.024008216336369514 0.1619347780942917 0.1585625559091568 0.0639636293053627 0.3225356340408325 0.22955773770809174 -0.08765576034784317 -0.05850404128432274 0.102129265666008 -0.25718116760253906 -0.14086687564849854 0.09502590447664261 0.03465195372700691 -0.2839869558811188 0.15860071778297424 -0.13111567497253418 -0.6840556859970093 0.14646907150745392 0.16203810274600983 -0.17180904746055603 0.19958671927452087 -0.1126842051744461
종량제 -0.3453114628791809 -0.690632700920105 -0.2535366117954254 -0.48341104388237 0.09868460893630981 -0.0032623561564832926 -0.1315593719482422 -0.3316797614097595 0.19624759256839752 0.10615906119346619 -0.38948947191238403 -0.2660563886165619 0.44395047426223755 -0.16234281659126282 0.2942708134651184 0.020696241408586502 0.22638466954231262 -0.07108468562364578 0.22960907220840454 -0.03415599837899208 -0.17365388572216034 -0.19379088282585144 0.34059181809425354 0.1743682473897934 0.16245903074741364 -0.05928441509604454 -0.006915753707289696 0.3330289125442505 -0.11365853995084763 -0.21804122626781464 0.010350438766181469 0.06572513282299042 -0.06855541467666626 -0.09326928853988647 0.3953064978122711 0.02077667787671089 -0.20906442403793335 0.21640463173389435 -0.05475730076432228 0.09188544005155563 -0.014623157680034637 0.0961945578455925 -0.07392372936010361 0.5325308442115784 0.02282143384218216 0.11124582588672638 -0.30752938985824585 -0.09946012496948242 -0.02214006893336773 0.3611522316932678 0.1939280480146408 -0.06080072745680809 -0.07687164098024368 -0.1774768978357315 0.105973981320858 -0.14696142077445984 -0.02973296493291855 0.38757336139678955 0.3140731453895569 0.21853786706924438 0.09005918353796005 0.2728612422943115 0.022630788385868073 0.22807374596595764 -0.29298651218414307 -0.14506405591964722 -0.2235419750213623 -0.3760538101196289 0.44011828303337097 0.09443344920873642 -0.14917925000190735 0.149296835064888 0.040049292147159576 -0.40432238578796387 0.16415277123451233 -0.08360552042722702 0.4568668007850647 0.1300331950187683 0.13706180453300476 0.28909552097320557 0.1148894652724266 -0.06010811775922775 0.11066858470439911 -0.06498531252145767 0.3186191916465759 -0.314767986536026 -0.20227262377738953 -0.06849945336580276 -0.2616756856441498 0.06574588268995285 0.0010290781501680613 0.013737739063799381 0.0839724987745285 0.1377291977405548 0.4295618236064911 -0.09402894228696823 -0.15440335869789124 0.1702430695295334 0.6611421704292297 -0.21390315890312195 -0.07553786039352417 0.34120672941207886 0.13695146143436432 0.3153078556060791 -0.16669902205467224 0.021600138396024704 0.2520331144332886 0.15562354028224945 0.26740410923957825 0.2822023630142212 -0.07193417102098465 -0.06724446266889572 -0.46136274933815 -0.0847846195101738 0.017223795875906944 -0.11732296645641327 -0.1656455397605896 -0.28774192929267883 -0.49418243765830994 0.03823130577802658 0.035858992487192154 -0.2114073932170868 0.22432257235050201 0.2595873177051544 -0.5633853077888489 -0.09590186923742294 0.13144510984420776 -0.1463920921087265 0.17089879512786865 0.15965548157691956 -0.08025921136140823 -0.403884619474411 0.05147627368569374 -0.03913203254342079 -0.22323757410049438 0.38554707169532776 0.30970755219459534 0.10914161801338196 -0.2125929445028305 -0.4362199008464813 -0.13766542077064514 -0.3749256432056427 -0.46477648615837097 0.013984434306621552 0.0030343374237418175 -0.10280486196279526 0.31098487973213196 -0.22972123324871063 0.11119779944419861 0.3914395868778229
