5 150 13
princess 0.03758662939071655 -0.17659758031368256 -0.0710935890674591 0.2779518663883209 -0.24956828355789185 -0.30657830834388733 0.1543794721364975 -0.32153159379959106 0.2845708727836609 0.23480670154094696 -0.09616990387439728 -0.3863304555416107 0.272989958524704 0.5776861906051636 0.21732018887996674 -0.3491704761981964 0.6963438987731934 -0.1573297530412674 -0.05658821389079094 -0.2897742688655853 -0.12834788858890533 0.055531974881887436 0.508090615272522 -0.0794706866145134 -0.06849338859319687 -0.07203196734189987 0.6141602993011475 0.1267060935497284 0.06288774311542511 0.12572014331817627 0.2694835960865021 0.14911910891532898 -0.10963365435600281 0.2008373737335205 0.48789840936660767 -0.29901689291000366 0.010557446628808975 0.4600851237773895 0.3842938542366028 0.03840981796383858 -0.011818681843578815 0.204951211810112 -0.281159371137619 0.08730489760637283 -0.33525165915489197 -0.08551222831010818 0.17381280660629272 -0.16720539331436157 -0.030205730348825455 0.6088724732398987 -0.1302054226398468 0.04786505550146103 -0.38555702567100525 -0.2611086368560791 -0.0278095044195652 -0.200581893324852 0.22095589339733124 0.36743560433387756 0.1619757115840912 0.39057421684265137 -0.019796879962086678 0.24976471066474915 0.2911539077758789 -0.11107290536165237 -0.16383378207683563 -0.34949713945388794 -0.629863977432251 0.19134050607681274 0.4943205416202545 0.10372302681207657 -0.33352234959602356 0.2938613295555115 -0.1445583552122116 0.03205161169171333 0.15923890471458435 0.16727451980113983 0.3173813223838806 -0.1382514089345932 -0.28778812289237976 0.007547350600361824 0.15037856996059418 -0.1384066939353943 0.3785427212715149 0.12964487075805664 0.1638699173927307 -0.27678582072257996 0.2653038203716278 -0.0034527205862104893 -0.03532925993204117 0.21731139719486237 -0.4340655505657196 0.2779264748096466 -0.2608889937400818 -0.020810764282941818 0.16944943368434906 0.06307782977819443 -0.11076924949884415 0.17535826563835144 0.1993236243724823 0.22340376675128937 0.09574176371097565 0.29477179050445557 0.20766432583332062 0.1194683238863945 0.024686001241207123 -0.0029271976090967655 -0.28735384345054626 0.09809565544128418 0.6145996451377869 0.10829386115074158 -0.3783344328403473 -0.04096745327115059 0.24235062301158905 -0.17783033847808838 0.09245921671390533 -0.14465095102787018 -0.30465802550315857 0.041929908096790314 -0.1972651183605194 0.109792560338974 0.17337581515312195 -0.14083535969257355 -0.18055126070976257 0.3453533947467804 -0.21207350492477417 0.24504931271076202 0.6439415812492371 -0.2142883688211441 0.1384510099887848 0.058502357453107834 0.02732839062809944 -0.1820480078458786 0.5866798758506775 0.046259958297014236 -0.21345165371894836 0.24382413923740387 0.2894899845123291 -0.20028936862945557 -0.0791885256767273 -0.09101945906877518 5.153527017682791E-4 -0.3717893064022064 0.09452599287033081 -0.20122240483760834 0.26932287216186523 -0.028397079557180405 0.29629606008529663 -0.470647931098938 -0.18033751845359802 0.13077683746814728
a 0.5000888705253601 0.4048305153846741 0.4043091833591461 0.15250547230243683 -0.05365864932537079 0.201357901096344 0.17400451004505157 -0.03256962075829506 -0.30677130818367004 0.13656246662139893 -0.015494982711970806 0.15606246888637543 0.08273876458406448 -0.0447215735912323 0.016030294820666313 -0.2199719250202179 0.0019840465392917395 -0.13833901286125183 -0.07788214087486267 0.06111614406108856 -0.28912800550460815 -0.08078557252883911 -0.12184188514947891 0.1205686554312706 -0.12461518496274948 0.055962562561035156 -0.15070520341396332 0.1656852811574936 -0.11649525165557861 0.024753479287028313 -0.17267726361751556 0.23065300285816193 0.004087451845407486 -0.3332673907279968 -0.173346146941185 0.29813188314437866 -0.0995369628071785 -0.12105342745780945 -0.506585955619812 -0.3924318253993988 0.06942275911569595 0.3487583100795746 0.006917248480021954 0.5143886208534241 0.16781029105186462 -0.050662197172641754 0.19625720381736755 -0.19752439856529236 -0.12326594442129135 -0.11120541393756866 0.22156809270381927 -0.01965012587606907 0.43935683369636536 0.3600082993507385 0.26846766471862793 -0.02930602617561817 0.052395157516002655 0.0391591340303421 -0.31298020482063293 -0.0399508960545063 0.06442281603813171 0.3591107130050659 -0.02240932732820511 -0.14312449097633362 -0.005622013006359339 0.22631476819515228 0.21587857604026794 -0.27519291639328003 -0.060161277651786804 -0.0911460891366005 0.0010050713317468762 -0.00341154751367867 0.3493391275405884 -0.29918697476387024 0.13225625455379486 -0.17339302599430084 -0.04306112974882126 -0.176443412899971 0.14121221005916595 0.21688106656074524 -0.3151199221611023 -0.02454046905040741 -0.04865850880742073 -0.04094189777970314 0.08289527893066406 0.2965804934501648 -0.23232534527778625 0.04265163466334343 -0.04580637812614441 -0.23394595086574554 0.3219979405403137 -0.21453897655010223 -0.058611683547496796 0.09375655651092529 0.3020598292350769 -0.08874960988759995 -0.18652212619781494 0.08273407071828842 -0.0020823576487600803 0.06997362524271011 -0.14283987879753113 0.006835012696683407 0.18711811304092407 0.2787219285964966 -0.46284112334251404 -0.3031226694583893 0.41089364886283875 -0.317660391330719 -0.39569082856178284 0.08076111227273941 0.20355485379695892 0.08560171723365784 -0.127169668674469 -0.03415974602103233 0.1388670653104782 -0.07970017194747925 -0.10870945453643799 0.0018713377648964524 -0.06119970232248306 -0.20008650422096252 -0.32866883277893066 -0.34016385674476624 -0.19219808280467987 -0.035144977271556854 -0.25297877192497253 -0.052114468067884445 -0.45622697472572327 0.016155775636434555 -0.07795755565166473 0.1216663271188736 -0.27716541290283203 0.020673222839832306 -0.13152386248111725 0.4579889178276062 -0.26730403304100037 0.2236444503068924 -0.3364020884037018 0.16087691485881805 -0.2523265779018402 -0.24585458636283875 0.1024264246225357 0.3477472960948944 -0.08237890899181366 -0.14166809618473053 -0.19677656888961792 -0.24329374730587006 0.10009226202964783 0.08361825346946716 -0.14607900381088257 -0.10816580057144165
king 0.05245056003332138 0.1391790807247162 -0.01840270683169365 0.4950191080570221 -0.2564144432544708 0.26863357424736023 0.5737929344177246 -0.4113309979438782 -0.28948384523391724 0.5816121101379395 -0.330046147108078 -0.1655883938074112 0.12063661217689514 0.0990149974822998 0.3616882562637329 0.10785028338432312 0.47928011417388916 -0.40473467111587524 0.14869475364685059 -0.022200867533683777 -0.49963507056236267 -0.005487340036779642 0.2478199452161789 0.1379736363887787 0.42381152510643005 -0.3572216331958771 -0.48143380880355835 0.48310592770576477 -0.10082487761974335 -0.3137490153312683 0.10298603773117065 0.2182445228099823 -0.443284273147583 0.09721924364566803 0.4754055440425873 -0.2777612507343292 -0.28892946243286133 0.10031744837760925 0.015971168875694275 -0.012438762001693249 0.061421725898981094 0.40483349561691284 0.26996931433677673 0.3372272849082947 -0.03089059330523014 0.013978800736367702 -0.046033963561058044 -0.3154489994049072 0.20532596111297607 0.10459646582603455 0.5047146677970886 -0.21316151320934296 0.02190261520445347 -0.04483015835285187 0.23276518285274506 -0.534349799156189 0.4592789113521576 0.26094719767570496 -0.07997213304042816 0.5080134272575378 0.19000956416130066 -0.07123339176177979 0.4497281014919281 0.12727423012256622 -0.10642480850219727 -0.24812525510787964 -0.32484546303749084 -0.046198148280382156 0.48070353269577026 0.00101295521017164 -0.12102895230054855 0.4999901354312897 -0.007532638031989336 0.09232786297798157 0.25188612937927246 0.3248542547225952 0.3038420081138611 -0.07383573055267334 -0.02751069702208042 0.4495972990989685 0.24354881048202515 -0.0011328671826049685 0.1346423476934433 0.015652328729629517 0.10394668579101562 -0.2142099142074585 -0.17869757115840912 0.037432458251714706 0.0917021706700325 -0.10118073225021362 0.026738105341792107 -0.11645429581403732 0.16460895538330078 -0.13001367449760437 0.06357046961784363 -0.3007776737213135 0.14171677827835083 -0.08072012662887573 0.4803926348686218 -0.19482579827308655 0.07196135818958282 -0.03262797370553017 0.3678165674209595 0.2534303367137909 -0.29986467957496643 -0.2240600436925888 0.01648164540529251 -0.245620459318161 0.11215697973966599 -0.06993172317743301 -0.1927724927663803 -0.3567354679107666 -0.2013699859380722 -0.15259093046188354 0.45881298184394836 0.30659720301628113 -0.32978564500808716 -0.013269614428281784 -0.5029367804527283 0.0520317405462265 0.04077426344156265 -0.044426608830690384 -0.03299661725759506 0.43988972902297974 0.04800868034362793 -0.2693099081516266 0.38645002245903015 0.024088284000754356 -0.05062849074602127 -0.06425382196903229 -0.16716645658016205 -0.39034634828567505 0.1252714842557907 -0.04638036713004112 -0.5355309247970581 0.1619962900876999 0.32267874479293823 -0.27834656834602356 0.2572804093360901 0.02124190330505371 0.43787652254104614 -0.14579808712005615 -0.218429297208786 0.28747186064720154 0.06356597691774368 -0.19474704563617706 0.37513405084609985 -0.35492274165153503 0.26958608627319336 -0.07042984664440155
is 0.6804050803184509 0.12736225128173828 0.2651187777519226 0.11559391021728516 -0.08339439332485199 -0.04517999663949013 -0.030141744762659073 -0.1961665153503418 0.13428917527198792 0.2609843611717224 -0.10517016053199768 -0.27546679973602295 0.07263239473104477 0.11780446767807007 -0.11516571789979935 -0.2898757755756378 0.19510801136493683 0.1340121179819107 -0.19170905649662018 -0.14606089890003204 -0.20436972379684448 -0.11398733407258987 0.1125016063451767 0.07284890860319138 -0.053841665387153625 -0.18358683586120605 0.13973498344421387 -0.12894369661808014 -0.3445839583873749 0.6174566149711609 -0.17673034965991974 0.2741229236125946 -0.06248321756720543 0.16014745831489563 0.12864303588867188 0.38046133518218994 -0.2032531499862671 0.17906241118907928 0.15626531839370728 -0.1812136024236679 0.24672609567642212 0.4159867465496063 -0.3511884808540344 0.2607641816139221 -0.059004709124565125 -0.29618778824806213 0.22759482264518738 -0.20801201462745667 0.02223431132733822 0.31347933411598206 -0.18555386364459991 0.024626046419143677 -0.2465878278017044 0.06538847833871841 0.33944812417030334 0.04172653704881668 0.23772811889648438 0.27472198009490967 -0.1411099135875702 0.14018890261650085 -0.2057008445262909 0.33120042085647583 0.03137250617146492 -0.4655873477458954 -0.040473226457834244 -0.21727164089679718 -0.2813812494277954 0.1102028638124466 0.1958683431148529 0.2693171799182892 -0.1836133599281311 0.3610694706439972 -0.0288242157548666 -0.34939953684806824 0.25100111961364746 -0.15835200250148773 -0.09788181632757187 -0.21466824412345886 -0.08882632851600647 0.04148148372769356 0.11464257538318634 -0.31138965487480164 0.06938907504081726 0.12998491525650024 0.1627262383699417 0.22503766417503357 0.2529744505882263 0.09424328804016113 0.23411472141742706 0.2587408721446991 -0.09697439521551132 0.07216846942901611 -0.26848238706588745 0.07704455405473709 0.16185277700424194 -0.047949112951755524 -0.017460495233535767 0.09255562722682953 -0.0633186474442482 0.4088829457759857 -0.021416526287794113 0.158795565366745 -0.031493447721004486 0.3842158019542694 -0.06816886365413666 0.00826253555715084 -0.34047743678092957 -0.13426369428634644 0.30408477783203125 -0.06044758856296539 -0.31896495819091797 0.24707500636577606 0.31878411769866943 -0.1327672004699707 -0.06704623997211456 -0.2571117877960205 -0.008124866522848606 0.3358874022960663 -0.14802874624729156 -0.03944333270192146 -0.20270714163780212 -0.2784382402896881 -0.17351260781288147 -0.12240197509527206 -0.05759279802441597 0.39563536643981934 0.2162317931652069 -0.18088281154632568 0.12421711534261703 0.2008337378501892 -0.19866180419921875 0.1397261619567871 0.40182748436927795 0.3769538998603821 -0.06090483069419861 0.2421138435602188 -0.33397191762924194 0.2789478898048401 -0.19965410232543945 -0.034057971090078354 -0.15934118628501892 -0.11911550164222717 0.4366891086101532 -0.5528733134269714 0.25296667218208313 -0.02339213155210018 0.0432048924267292 -0.16076375544071198 -0.3540818989276886 -0.15307240188121796
queen 0.45711976289749146 -0.14248062670230865 0.050769977271556854 -0.2731096148490906 -0.14240652322769165 0.08133621513843536 -0.01631251536309719 0.07527174800634384 -0.1304321438074112 0.2688506245613098 0.14409004151821136 -0.08926811069250107 0.41754597425460815 -0.003435138612985611 0.2263244241476059 -0.5183445811271667 0.23109383881092072 0.16108764708042145 -0.017685290426015854 -0.049268435686826706 -0.0944841206073761 -0.057535506784915924 0.011981730349361897 0.32149747014045715 -0.07854799181222916 0.20145022869110107 0.2650863826274872 -0.15668952465057373 0.014285847544670105 0.3115849494934082 -0.44323989748954773 0.2030068337917328 0.3238028585910797 -0.1175750121474266 -0.09182548522949219 0.33145883679389954 0.29898616671562195 0.17981986701488495 0.13641142845153809 0.10849057883024216 0.14946657419204712 0.19180408120155334 -0.26975423097610474 0.1461382359266281 -0.2540261149406433 -0.1872231662273407 0.021647173911333084 0.02000802755355835 -0.3170618712902069 0.09404298663139343 -0.03765908628702164 0.1327694207429886 0.2441776990890503 -0.03313760459423065 0.1373104751110077 -0.13810238242149353 -0.160475492477417 0.14373593032360077 0.11655254662036896 0.3340456783771515 -0.28277862071990967 0.2934754490852356 -0.2224998027086258 -0.3962461054325104 0.21867837011814117 -0.1571396440267563 -0.07307930290699005 -0.40622344613075256 -0.14082324504852295 0.027719635516405106 -0.08168580383062363 -0.011245153844356537 0.19508063793182373 -0.524734616279602 0.3929526209831238 0.07389329373836517 -0.27643340826034546 -0.20703808963298798 -0.26840201020240784 -0.1513790339231491 -0.014259284362196922 -0.05453232675790787 0.1466134637594223 -0.11505460739135742 0.25300198793411255 -0.08555968850851059 -0.05350935459136963 -0.2777321934700012 -0.41371893882751465 0.08314303308725357 0.22443120181560516 0.0034405970945954323 -0.2954028844833374 -0.2920549511909485 0.29475751519203186 -0.029181314632296562 -0.29490458965301514 0.11109860986471176 0.03153553977608681 0.1727290153503418 0.06330820918083191 0.19549062848091125 -0.07371102273464203 0.22225421667099 0.17152035236358643 -0.02916460856795311 -0.11301024258136749 0.06296325474977493 0.06042176112532616 0.04643227159976959 0.12060486525297165 -0.19541171193122864 0.13627706468105316 0.2633674740791321 -0.026788678020238876 -0.19474124908447266 0.03619628772139549 -0.2518428564071655 0.08203164488077164 0.17174874246120453 -0.5390945672988892 -0.4206732213497162 -0.011242085136473179 -0.4435819089412689 -0.07425913214683533 0.08957512676715851 -0.4861704409122467 0.1480141580104828 0.16149578988552094 0.07999303191900253 -0.2024317979812622 0.12481612712144852 0.06263899803161621 0.3480471670627594 0.16965587437152863 0.18559816479682922 -0.1501845419406891 0.28000521659851074 -0.2775498330593109 -0.5492315292358398 -0.37325724959373474 0.4938194453716278 -0.03353152796626091 -0.35338956117630005 -0.05557984486222267 -0.0653734803199768 -0.24608108401298523 0.06807029992341995 -0.3862258493900299 0.11131559312343597
